digraph Tree {
node [shape=box, style="filled", color="black", fontname="helvetica"] ;
edge [fontname="helvetica"] ;
0 [label="X[1] <= 143.5\ngini = 0.454\nsamples = 614\nvalue = [400, 214]", fillcolor="#f3c4a3"] ;
1 [label="X[5] <= 27.35\ngini = 0.351\nsamples = 471\nvalue = [364, 107]", fillcolor="#eda673"] ;
0 -> 1 [labeldistance=2.5, labelangle=45, headlabel="True"] ;
2 [label="X[1] <= 105.5\ngini = 0.098\nsamples = 136\nvalue = [129, 7]", fillcolor="#e68844"] ;
1 -> 2 ;
3 [label="gini = 0.0\nsamples = 70\nvalue = [70, 0]", fillcolor="#e58139"] ;
2 -> 3 ;
4 [label="X[5] <= 9.8\ngini = 0.19\nsamples = 66\nvalue = [59, 7]", fillcolor="#e89050"] ;
2 -> 4 ;
5 [label="X[0] <= 6.5\ngini = 0.5\nsamples = 4\nvalue = [2, 2]", fillcolor="#ffffff"] ;
4 -> 5 ;
6 [label="gini = 0.0\nsamples = 2\nvalue = [2, 0]", fillcolor="#e58139"] ;
5 -> 6 ;
7 [label="gini = 0.0\nsamples = 2\nvalue = [0, 2]", fillcolor="#399de5"] ;
5 -> 7 ;
8 [label="X[1] <= 108.5\ngini = 0.148\nsamples = 62\nvalue = [57, 5]", fillcolor="#e78c4a"] ;
4 -> 8 ;
9 [label="X[6] <= 0.247\ngini = 0.397\nsamples = 11\nvalue = [8, 3]", fillcolor="#efb083"] ;
8 -> 9 ;
10 [label="gini = 0.0\nsamples = 5\nvalue = [5, 0]", fillcolor="#e58139"] ;
9 -> 10 ;
11 [label="X[6] <= 0.348\ngini = 0.5\nsamples = 6\nvalue = [3, 3]", fillcolor="#ffffff"] ;
9 -> 11 ;
12 [label="gini = 0.0\nsamples = 2\nvalue = [0, 2]", fillcolor="#399de5"] ;
11 -> 12 ;
13 [label="X[5] <= 23.75\ngini = 0.375\nsamples = 4\nvalue = [3, 1]", fillcolor="#eeab7b"] ;
11 -> 13 ;
14 [label="gini = 0.0\nsamples = 1\nvalue = [0, 1]", fillcolor="#399de5"] ;
13 -> 14 ;
15 [label="gini = 0.0\nsamples = 3\nvalue = [3, 0]", fillcolor="#e58139"] ;
13 -> 15 ;
16 [label="X[5] <= 25.55\ngini = 0.075\nsamples = 51\nvalue = [49, 2]", fillcolor="#e68641"] ;
8 -> 16 ;
17 [label="gini = 0.0\nsamples = 35\nvalue = [35, 0]", fillcolor="#e58139"] ;
16 -> 17 ;
18 [label="X[2] <= 66.0\ngini = 0.219\nsamples = 16\nvalue = [14, 2]", fillcolor="#e99355"] ;
16 -> 18 ;
19 [label="X[0] <= 2.5\ngini = 0.48\nsamples = 5\nvalue = [3, 2]", fillcolor="#f6d5bd"] ;
18 -> 19 ;
20 [label="gini = 0.0\nsamples = 3\nvalue = [3, 0]", fillcolor="#e58139"] ;
19 -> 20 ;
21 [label="gini = 0.0\nsamples = 2\nvalue = [0, 2]", fillcolor="#399de5"] ;
19 -> 21 ;
22 [label="gini = 0.0\nsamples = 11\nvalue = [11, 0]", fillcolor="#e58139"] ;
18 -> 22 ;
23 [label="X[7] <= 28.5\ngini = 0.419\nsamples = 335\nvalue = [235, 100]", fillcolor="#f0b78d"] ;
1 -> 23 ;
24 [label="X[3] <= 5.0\ngini = 0.296\nsamples = 166\nvalue = [136, 30]", fillcolor="#eb9d65"] ;
23 -> 24 ;
25 [label="X[1] <= 110.5\ngini = 0.499\nsamples = 29\nvalue = [15, 14]", fillcolor="#fdf7f2"] ;
24 -> 25 ;
26 [label="gini = 0.0\nsamples = 9\nvalue = [9, 0]", fillcolor="#e58139"] ;
25 -> 26 ;
27 [label="X[2] <= 55.0\ngini = 0.42\nsamples = 20\nvalue = [6, 14]", fillcolor="#8ec7f0"] ;
25 -> 27 ;
28 [label="gini = 0.0\nsamples = 6\nvalue = [0, 6]", fillcolor="#399de5"] ;
27 -> 28 ;
29 [label="X[7] <= 23.5\ngini = 0.49\nsamples = 14\nvalue = [6, 8]", fillcolor="#cee6f8"] ;
27 -> 29 ;
30 [label="X[0] <= 1.0\ngini = 0.245\nsamples = 7\nvalue = [1, 6]", fillcolor="#5aade9"] ;
29 -> 30 ;
31 [label="gini = 0.5\nsamples = 2\nvalue = [1, 1]", fillcolor="#ffffff"] ;
30 -> 31 ;
32 [label="gini = 0.0\nsamples = 5\nvalue = [0, 5]", fillcolor="#399de5"] ;
30 -> 32 ;
33 [label="X[0] <= 4.5\ngini = 0.408\nsamples = 7\nvalue = [5, 2]", fillcolor="#efb388"] ;
29 -> 33 ;
34 [label="X[6] <= 0.42\ngini = 0.278\nsamples = 6\nvalue = [5, 1]", fillcolor="#ea9a61"] ;
33 -> 34 ;
35 [label="gini = 0.0\nsamples = 4\nvalue = [4, 0]", fillcolor="#e58139"] ;
34 -> 35 ;
36 [label="gini = 0.5\nsamples = 2\nvalue = [1, 1]", fillcolor="#ffffff"] ;
34 -> 36 ;
37 [label="gini = 0.0\nsamples = 1\nvalue = [0, 1]", fillcolor="#399de5"] ;
33 -> 37 ;
38 [label="X[6] <= 1.197\ngini = 0.206\nsamples = 137\nvalue = [121, 16]", fillcolor="#e89253"] ;
24 -> 38 ;
39 [label="X[5] <= 45.4\ngini = 0.186\nsamples = 135\nvalue = [121, 14]", fillcolor="#e89050"] ;
38 -> 39 ;
40 [label="X[1] <= 137.5\ngini = 0.165\nsamples = 132\nvalue = [120, 12]", fillcolor="#e88e4d"] ;
39 -> 40 ;
41 [label="X[6] <= 0.501\ngini = 0.136\nsamples = 123\nvalue = [114, 9]", fillcolor="#e78b49"] ;
40 -> 41 ;
42 [label="X[4] <= 36.5\ngini = 0.051\nsamples = 77\nvalue = [75, 2]", fillcolor="#e6843e"] ;
41 -> 42 ;
43 [label="X[4] <= 34.0\ngini = 0.172\nsamples = 21\nvalue = [19, 2]", fillcolor="#e88e4e"] ;
42 -> 43 ;
44 [label="X[1] <= 111.5\ngini = 0.095\nsamples = 20\nvalue = [19, 1]", fillcolor="#e68843"] ;
43 -> 44 ;
45 [label="gini = 0.0\nsamples = 16\nvalue = [16, 0]", fillcolor="#e58139"] ;
44 -> 45 ;
46 [label="X[0] <= 2.5\ngini = 0.375\nsamples = 4\nvalue = [3, 1]", fillcolor="#eeab7b"] ;
44 -> 46 ;
47 [label="gini = 0.0\nsamples = 3\nvalue = [3, 0]", fillcolor="#e58139"] ;
46 -> 47 ;
48 [label="gini = 0.0\nsamples = 1\nvalue = [0, 1]", fillcolor="#399de5"] ;
46 -> 48 ;
49 [label="gini = 0.0\nsamples = 1\nvalue = [0, 1]", fillcolor="#399de5"] ;
43 -> 49 ;
50 [label="gini = 0.0\nsamples = 56\nvalue = [56, 0]", fillcolor="#e58139"] ;
42 -> 50 ;
51 [label="X[6] <= 0.554\ngini = 0.258\nsamples = 46\nvalue = [39, 7]", fillcolor="#ea985d"] ;
41 -> 51 ;
52 [label="X[2] <= 61.0\ngini = 0.486\nsamples = 12\nvalue = [7, 5]", fillcolor="#f8dbc6"] ;
51 -> 52 ;
53 [label="gini = 0.0\nsamples = 4\nvalue = [4, 0]", fillcolor="#e58139"] ;
52 -> 53 ;
54 [label="X[2] <= 70.0\ngini = 0.469\nsamples = 8\nvalue = [3, 5]", fillcolor="#b0d8f5"] ;
52 -> 54 ;
55 [label="gini = 0.0\nsamples = 4\nvalue = [0, 4]", fillcolor="#399de5"] ;
54 -> 55 ;
56 [label="X[3] <= 26.0\ngini = 0.375\nsamples = 4\nvalue = [3, 1]", fillcolor="#eeab7b"] ;
54 -> 56 ;
57 [label="gini = 0.0\nsamples = 1\nvalue = [0, 1]", fillcolor="#399de5"] ;
56 -> 57 ;
58 [label="gini = 0.0\nsamples = 3\nvalue = [3, 0]", fillcolor="#e58139"] ;
56 -> 58 ;
59 [label="X[3] <= 43.5\ngini = 0.111\nsamples = 34\nvalue = [32, 2]", fillcolor="#e78945"] ;
51 -> 59 ;
60 [label="X[0] <= 0.5\ngini = 0.061\nsamples = 32\nvalue = [31, 1]", fillcolor="#e6853f"] ;
59 -> 60 ;
61 [label="X[2] <= 63.0\ngini = 0.245\nsamples = 7\nvalue = [6, 1]", fillcolor="#e9965a"] ;
60 -> 61 ;
62 [label="gini = 0.0\nsamples = 1\nvalue = [0, 1]", fillcolor="#399de5"] ;
61 -> 62 ;
63 [label="gini = 0.0\nsamples = 6\nvalue = [6, 0]", fillcolor="#e58139"] ;
61 -> 63 ;
64 [label="gini = 0.0\nsamples = 25\nvalue = [25, 0]", fillcolor="#e58139"] ;
60 -> 64 ;
65 [label="gini = 0.5\nsamples = 2\nvalue = [1, 1]", fillcolor="#ffffff"] ;
59 -> 65 ;
66 [label="X[6] <= 0.535\ngini = 0.444\nsamples = 9\nvalue = [6, 3]", fillcolor="#f2c09c"] ;
40 -> 66 ;
67 [label="X[4] <= 150.0\ngini = 0.48\nsamples = 5\nvalue = [2, 3]", fillcolor="#bddef6"] ;
66 -> 67 ;
68 [label="gini = 0.444\nsamples = 3\nvalue = [2, 1]", fillcolor="#f2c09c"] ;
67 -> 68 ;
69 [label="gini = 0.0\nsamples = 2\nvalue = [0, 2]", fillcolor="#399de5"] ;
67 -> 69 ;
70 [label="gini = 0.0\nsamples = 4\nvalue = [4, 0]", fillcolor="#e58139"] ;
66 -> 70 ;
71 [label="gini = 0.444\nsamples = 3\nvalue = [1, 2]", fillcolor="#9ccef2"] ;
39 -> 71 ;
72 [label="gini = 0.0\nsamples = 2\nvalue = [0, 2]", fillcolor="#399de5"] ;
38 -> 72 ;
73 [label="X[1] <= 89.5\ngini = 0.485\nsamples = 169\nvalue = [99, 70]", fillcolor="#f7dac5"] ;
23 -> 73 ;
74 [label="X[6] <= 1.16\ngini = 0.142\nsamples = 26\nvalue = [24, 2]", fillcolor="#e78c49"] ;
73 -> 74 ;
75 [label="X[1] <= 28.5\ngini = 0.077\nsamples = 25\nvalue = [24, 1]", fillcolor="#e68641"] ;
74 -> 75 ;
76 [label="gini = 0.0\nsamples = 1\nvalue = [0, 1]", fillcolor="#399de5"] ;
75 -> 76 ;
77 [label="gini = 0.0\nsamples = 24\nvalue = [24, 0]", fillcolor="#e58139"] ;
75 -> 77 ;
78 [label="gini = 0.0\nsamples = 1\nvalue = [0, 1]", fillcolor="#399de5"] ;
74 -> 78 ;
79 [label="X[6] <= 0.528\ngini = 0.499\nsamples = 143\nvalue = [75, 68]", fillcolor="#fdf3ed"] ;
73 -> 79 ;
80 [label="X[7] <= 54.5\ngini = 0.47\nsamples = 98\nvalue = [61, 37]", fillcolor="#f5cdb1"] ;
79 -> 80 ;
81 [label="X[6] <= 0.218\ngini = 0.484\nsamples = 90\nvalue = [53, 37]", fillcolor="#f7d9c3"] ;
80 -> 81 ;
82 [label="X[3] <= 29.5\ngini = 0.346\nsamples = 27\nvalue = [21, 6]", fillcolor="#eca572"] ;
81 -> 82 ;
83 [label="X[2] <= 72.0\ngini = 0.444\nsamples = 18\nvalue = [12, 6]", fillcolor="#f2c09c"] ;
82 -> 83 ;
84 [label="X[7] <= 30.0\ngini = 0.444\nsamples = 6\nvalue = [2, 4]", fillcolor="#9ccef2"] ;
83 -> 84 ;
85 [label="gini = 0.444\nsamples = 3\nvalue = [2, 1]", fillcolor="#f2c09c"] ;
84 -> 85 ;
86 [label="gini = 0.0\nsamples = 3\nvalue = [0, 3]", fillcolor="#399de5"] ;
84 -> 86 ;
87 [label="X[7] <= 52.5\ngini = 0.278\nsamples = 12\nvalue = [10, 2]", fillcolor="#ea9a61"] ;
83 -> 87 ;
88 [label="X[1] <= 103.5\ngini = 0.165\nsamples = 11\nvalue = [10, 1]", fillcolor="#e88e4d"] ;
87 -> 88 ;
89 [label="X[2] <= 79.0\ngini = 0.375\nsamples = 4\nvalue = [3, 1]", fillcolor="#eeab7b"] ;
88 -> 89 ;
90 [label="gini = 0.0\nsamples = 3\nvalue = [3, 0]", fillcolor="#e58139"] ;
89 -> 90 ;
91 [label="gini = 0.0\nsamples = 1\nvalue = [0, 1]", fillcolor="#399de5"] ;
89 -> 91 ;
92 [label="gini = 0.0\nsamples = 7\nvalue = [7, 0]", fillcolor="#e58139"] ;
88 -> 92 ;
93 [label="gini = 0.0\nsamples = 1\nvalue = [0, 1]", fillcolor="#399de5"] ;
87 -> 93 ;
94 [label="gini = 0.0\nsamples = 9\nvalue = [9, 0]", fillcolor="#e58139"] ;
82 -> 94 ;
95 [label="X[6] <= 0.235\ngini = 0.5\nsamples = 63\nvalue = [32, 31]", fillcolor="#fefbf9"] ;
81 -> 95 ;
96 [label="gini = 0.0\nsamples = 5\nvalue = [0, 5]", fillcolor="#399de5"] ;
95 -> 96 ;
97 [label="X[5] <= 43.1\ngini = 0.495\nsamples = 58\nvalue = [32, 26]", fillcolor="#fae7da"] ;
95 -> 97 ;
98 [label="X[6] <= 0.253\ngini = 0.487\nsamples = 55\nvalue = [32, 23]", fillcolor="#f8dcc7"] ;
97 -> 98 ;
99 [label="gini = 0.0\nsamples = 8\nvalue = [8, 0]", fillcolor="#e58139"] ;
98 -> 99 ;
100 [label="X[6] <= 0.264\ngini = 0.5\nsamples = 47\nvalue = [24, 23]", fillcolor="#fefaf7"] ;
98 -> 100 ;
101 [label="X[0] <= 9.5\ngini = 0.198\nsamples = 9\nvalue = [1, 8]", fillcolor="#52a9e8"] ;
100 -> 101 ;
102 [label="gini = 0.0\nsamples = 6\nvalue = [0, 6]", fillcolor="#399de5"] ;
101 -> 102 ;
103 [label="gini = 0.444\nsamples = 3\nvalue = [1, 2]", fillcolor="#9ccef2"] ;
101 -> 103 ;
104 [label="X[2] <= 81.0\ngini = 0.478\nsamples = 38\nvalue = [23, 15]", fillcolor="#f6d3ba"] ;
100 -> 104 ;
105 [label="X[4] <= 81.0\ngini = 0.499\nsamples = 29\nvalue = [14, 15]", fillcolor="#f2f8fd"] ;
104 -> 105 ;
106 [label="X[6] <= 0.379\ngini = 0.432\nsamples = 19\nvalue = [6, 13]", fillcolor="#94caf1"] ;
105 -> 106 ;
107 [label="X[2] <= 33.0\ngini = 0.198\nsamples = 9\nvalue = [1, 8]", fillcolor="#52a9e8"] ;
106 -> 107 ;
108 [label="gini = 0.0\nsamples = 1\nvalue = [1, 0]", fillcolor="#e58139"] ;
107 -> 108 ;
109 [label="gini = 0.0\nsamples = 8\nvalue = [0, 8]", fillcolor="#399de5"] ;
107 -> 109 ;
110 [label="X[5] <= 29.65\ngini = 0.5\nsamples = 10\nvalue = [5, 5]", fillcolor="#ffffff"] ;
106 -> 110 ;
111 [label="gini = 0.0\nsamples = 2\nvalue = [2, 0]", fillcolor="#e58139"] ;
110 -> 111 ;
112 [label="X[6] <= 0.431\ngini = 0.469\nsamples = 8\nvalue = [3, 5]", fillcolor="#b0d8f5"] ;
110 -> 112 ;
113 [label="X[0] <= 6.5\ngini = 0.48\nsamples = 5\nvalue = [3, 2]", fillcolor="#f6d5bd"] ;
112 -> 113 ;
114 [label="gini = 0.444\nsamples = 3\nvalue = [1, 2]", fillcolor="#9ccef2"] ;
113 -> 114 ;
115 [label="gini = 0.0\nsamples = 2\nvalue = [2, 0]", fillcolor="#e58139"] ;
113 -> 115 ;
116 [label="gini = 0.0\nsamples = 3\nvalue = [0, 3]", fillcolor="#399de5"] ;
112 -> 116 ;
117 [label="X[7] <= 42.5\ngini = 0.32\nsamples = 10\nvalue = [8, 2]", fillcolor="#eca06a"] ;
105 -> 117 ;
118 [label="gini = 0.0\nsamples = 7\nvalue = [7, 0]", fillcolor="#e58139"] ;
117 -> 118 ;
119 [label="gini = 0.444\nsamples = 3\nvalue = [1, 2]", fillcolor="#9ccef2"] ;
117 -> 119 ;
120 [label="gini = 0.0\nsamples = 9\nvalue = [9, 0]", fillcolor="#e58139"] ;
104 -> 120 ;
121 [label="gini = 0.0\nsamples = 3\nvalue = [0, 3]", fillcolor="#399de5"] ;
97 -> 121 ;
122 [label="gini = 0.0\nsamples = 8\nvalue = [8, 0]", fillcolor="#e58139"] ;
80 -> 122 ;
123 [label="X[0] <= 8.5\ngini = 0.429\nsamples = 45\nvalue = [14, 31]", fillcolor="#92c9f1"] ;
79 -> 123 ;
124 [label="X[4] <= 85.0\ngini = 0.492\nsamples = 32\nvalue = [14, 18]", fillcolor="#d3e9f9"] ;
123 -> 124 ;
125 [label="X[6] <= 0.943\ngini = 0.457\nsamples = 17\nvalue = [11, 6]", fillcolor="#f3c6a5"] ;
124 -> 125 ;
126 [label="X[5] <= 28.5\ngini = 0.278\nsamples = 12\nvalue = [10, 2]", fillcolor="#ea9a61"] ;
125 -> 126 ;
127 [label="gini = 0.0\nsamples = 1\nvalue = [0, 1]", fillcolor="#399de5"] ;
126 -> 127 ;
128 [label="X[3] <= 27.5\ngini = 0.165\nsamples = 11\nvalue = [10, 1]", fillcolor="#e88e4d"] ;
126 -> 128 ;
129 [label="gini = 0.0\nsamples = 9\nvalue = [9, 0]", fillcolor="#e58139"] ;
128 -> 129 ;
130 [label="gini = 0.5\nsamples = 2\nvalue = [1, 1]", fillcolor="#ffffff"] ;
128 -> 130 ;
131 [label="X[2] <= 99.0\ngini = 0.32\nsamples = 5\nvalue = [1, 4]", fillcolor="#6ab6ec"] ;
125 -> 131 ;
132 [label="gini = 0.0\nsamples = 4\nvalue = [0, 4]", fillcolor="#399de5"] ;
131 -> 132 ;
133 [label="gini = 0.0\nsamples = 1\nvalue = [1, 0]", fillcolor="#e58139"] ;
131 -> 133 ;
134 [label="X[7] <= 33.5\ngini = 0.32\nsamples = 15\nvalue = [3, 12]", fillcolor="#6ab6ec"] ;
124 -> 134 ;
135 [label="gini = 0.0\nsamples = 9\nvalue = [0, 9]", fillcolor="#399de5"] ;
134 -> 135 ;
136 [label="X[1] <= 105.0\ngini = 0.5\nsamples = 6\nvalue = [3, 3]", fillcolor="#ffffff"] ;
134 -> 136 ;
137 [label="gini = 0.0\nsamples = 2\nvalue = [0, 2]", fillcolor="#399de5"] ;
136 -> 137 ;
138 [label="X[3] <= 26.5\ngini = 0.375\nsamples = 4\nvalue = [3, 1]", fillcolor="#eeab7b"] ;
136 -> 138 ;
139 [label="gini = 0.0\nsamples = 1\nvalue = [0, 1]", fillcolor="#399de5"] ;
138 -> 139 ;
140 [label="gini = 0.0\nsamples = 3\nvalue = [3, 0]", fillcolor="#e58139"] ;
138 -> 140 ;
141 [label="gini = 0.0\nsamples = 13\nvalue = [0, 13]", fillcolor="#399de5"] ;
123 -> 141 ;
142 [label="X[1] <= 165.5\ngini = 0.377\nsamples = 143\nvalue = [36, 107]", fillcolor="#7cbeee"] ;
0 -> 142 [labeldistance=2.5, labelangle=-45, headlabel="False"] ;
143 [label="X[5] <= 23.25\ngini = 0.461\nsamples = 72\nvalue = [26, 46]", fillcolor="#a9d4f4"] ;
142 -> 143 ;
144 [label="gini = 0.0\nsamples = 3\nvalue = [3, 0]", fillcolor="#e58139"] ;
143 -> 144 ;
145 [label="X[7] <= 24.5\ngini = 0.444\nsamples = 69\nvalue = [23, 46]", fillcolor="#9ccef2"] ;
143 -> 145 ;
146 [label="X[3] <= 31.5\ngini = 0.408\nsamples = 7\nvalue = [5, 2]", fillcolor="#efb388"] ;
145 -> 146 ;
147 [label="gini = 0.0\nsamples = 4\nvalue = [4, 0]", fillcolor="#e58139"] ;
146 -> 147 ;
148 [label="gini = 0.444\nsamples = 3\nvalue = [1, 2]", fillcolor="#9ccef2"] ;
146 -> 148 ;
149 [label="X[3] <= 36.5\ngini = 0.412\nsamples = 62\nvalue = [18, 44]", fillcolor="#8ac5f0"] ;
145 -> 149 ;
150 [label="X[1] <= 164.5\ngini = 0.325\nsamples = 44\nvalue = [9, 35]", fillcolor="#6cb6ec"] ;
149 -> 150 ;
151 [label="X[6] <= 1.502\ngini = 0.303\nsamples = 43\nvalue = [8, 35]", fillcolor="#66b3eb"] ;
150 -> 151 ;
152 [label="X[6] <= 0.438\ngini = 0.278\nsamples = 42\nvalue = [7, 35]", fillcolor="#61b1ea"] ;
151 -> 152 ;
153 [label="X[2] <= 71.0\ngini = 0.393\nsamples = 26\nvalue = [7, 19]", fillcolor="#82c1ef"] ;
152 -> 153 ;
154 [label="X[0] <= 6.5\ngini = 0.165\nsamples = 11\nvalue = [1, 10]", fillcolor="#4da7e8"] ;
153 -> 154 ;
155 [label="gini = 0.0\nsamples = 8\nvalue = [0, 8]", fillcolor="#399de5"] ;
154 -> 155 ;
156 [label="gini = 0.444\nsamples = 3\nvalue = [1, 2]", fillcolor="#9ccef2"] ;
154 -> 156 ;
157 [label="X[4] <= 98.0\ngini = 0.48\nsamples = 15\nvalue = [6, 9]", fillcolor="#bddef6"] ;
153 -> 157 ;
158 [label="X[6] <= 0.433\ngini = 0.298\nsamples = 11\nvalue = [2, 9]", fillcolor="#65b3eb"] ;
157 -> 158 ;
159 [label="X[7] <= 53.5\ngini = 0.18\nsamples = 10\nvalue = [1, 9]", fillcolor="#4fa8e8"] ;
158 -> 159 ;
160 [label="gini = 0.0\nsamples = 8\nvalue = [0, 8]", fillcolor="#399de5"] ;
159 -> 160 ;
161 [label="gini = 0.5\nsamples = 2\nvalue = [1, 1]", fillcolor="#ffffff"] ;
159 -> 161 ;
162 [label="gini = 0.0\nsamples = 1\nvalue = [1, 0]", fillcolor="#e58139"] ;
158 -> 162 ;
163 [label="gini = 0.0\nsamples = 4\nvalue = [4, 0]", fillcolor="#e58139"] ;
157 -> 163 ;
164 [label="gini = 0.0\nsamples = 16\nvalue = [0, 16]", fillcolor="#399de5"] ;
152 -> 164 ;
165 [label="gini = 0.0\nsamples = 1\nvalue = [1, 0]", fillcolor="#e58139"] ;
151 -> 165 ;
166 [label="gini = 0.0\nsamples = 1\nvalue = [1, 0]", fillcolor="#e58139"] ;
150 -> 166 ;
167 [label="X[1] <= 149.0\ngini = 0.5\nsamples = 18\nvalue = [9, 9]", fillcolor="#ffffff"] ;
149 -> 167 ;
168 [label="X[1] <= 144.5\ngini = 0.278\nsamples = 6\nvalue = [1, 5]", fillcolor="#61b1ea"] ;
167 -> 168 ;
169 [label="gini = 0.5\nsamples = 2\nvalue = [1, 1]", fillcolor="#ffffff"] ;
168 -> 169 ;
170 [label="gini = 0.0\nsamples = 4\nvalue = [0, 4]", fillcolor="#399de5"] ;
168 -> 170 ;
171 [label="X[5] <= 39.05\ngini = 0.444\nsamples = 12\nvalue = [8, 4]", fillcolor="#f2c09c"] ;
167 -> 171 ;
172 [label="gini = 0.0\nsamples = 4\nvalue = [4, 0]", fillcolor="#e58139"] ;
171 -> 172 ;
173 [label="X[7] <= 28.0\ngini = 0.5\nsamples = 8\nvalue = [4, 4]", fillcolor="#ffffff"] ;
171 -> 173 ;
174 [label="gini = 0.0\nsamples = 3\nvalue = [3, 0]", fillcolor="#e58139"] ;
173 -> 174 ;
175 [label="X[3] <= 38.5\ngini = 0.32\nsamples = 5\nvalue = [1, 4]", fillcolor="#6ab6ec"] ;
173 -> 175 ;
176 [label="gini = 0.0\nsamples = 1\nvalue = [1, 0]", fillcolor="#e58139"] ;
175 -> 176 ;
177 [label="gini = 0.0\nsamples = 4\nvalue = [0, 4]", fillcolor="#399de5"] ;
175 -> 177 ;
178 [label="X[2] <= 93.0\ngini = 0.242\nsamples = 71\nvalue = [10, 61]", fillcolor="#59ade9"] ;
142 -> 178 ;
179 [label="X[7] <= 66.5\ngini = 0.192\nsamples = 65\nvalue = [7, 58]", fillcolor="#51a9e8"] ;
178 -> 179 ;
180 [label="X[0] <= 9.5\ngini = 0.17\nsamples = 64\nvalue = [6, 58]", fillcolor="#4da7e8"] ;
179 -> 180 ;
181 [label="X[6] <= 2.233\ngini = 0.148\nsamples = 62\nvalue = [5, 57]", fillcolor="#4aa6e7"] ;
180 -> 181 ;
182 [label="X[5] <= 45.5\ngini = 0.124\nsamples = 60\nvalue = [4, 56]", fillcolor="#47a4e7"] ;
181 -> 182 ;
183 [label="X[2] <= 69.0\ngini = 0.098\nsamples = 58\nvalue = [3, 55]", fillcolor="#44a2e6"] ;
182 -> 183 ;
184 [label="X[1] <= 190.0\ngini = 0.266\nsamples = 19\nvalue = [3, 16]", fillcolor="#5eafea"] ;
183 -> 184 ;
185 [label="X[7] <= 27.0\ngini = 0.117\nsamples = 16\nvalue = [1, 15]", fillcolor="#46a4e7"] ;
184 -> 185 ;
186 [label="gini = 0.444\nsamples = 3\nvalue = [1, 2]", fillcolor="#9ccef2"] ;
185 -> 186 ;
187 [label="gini = 0.0\nsamples = 13\nvalue = [0, 13]", fillcolor="#399de5"] ;
185 -> 187 ;
188 [label="gini = 0.444\nsamples = 3\nvalue = [2, 1]", fillcolor="#f2c09c"] ;
184 -> 188 ;
189 [label="gini = 0.0\nsamples = 39\nvalue = [0, 39]", fillcolor="#399de5"] ;
183 -> 189 ;
190 [label="gini = 0.5\nsamples = 2\nvalue = [1, 1]", fillcolor="#ffffff"] ;
182 -> 190 ;
191 [label="gini = 0.5\nsamples = 2\nvalue = [1, 1]", fillcolor="#ffffff"] ;
181 -> 191 ;
192 [label="gini = 0.5\nsamples = 2\nvalue = [1, 1]", fillcolor="#ffffff"] ;
180 -> 192 ;
193 [label="gini = 0.0\nsamples = 1\nvalue = [1, 0]", fillcolor="#e58139"] ;
179 -> 193 ;
194 [label="X[1] <= 175.0\ngini = 0.5\nsamples = 6\nvalue = [3, 3]", fillcolor="#ffffff"] ;
178 -> 194 ;
195 [label="gini = 0.0\nsamples = 2\nvalue = [0, 2]", fillcolor="#399de5"] ;
194 -> 195 ;
196 [label="X[0] <= 2.0\ngini = 0.375\nsamples = 4\nvalue = [3, 1]", fillcolor="#eeab7b"] ;
194 -> 196 ;
197 [label="gini = 0.0\nsamples = 1\nvalue = [0, 1]", fillcolor="#399de5"] ;
196 -> 197 ;
198 [label="gini = 0.0\nsamples = 3\nvalue = [3, 0]", fillcolor="#e58139"] ;
196 -> 198 ;
}